7 100
sent_0 -0.000796 0.002393 -0.004938 -0.001814 -0.003522 -0.003966 -0.003111 -0.001616 -0.001281 0.000395 -0.000894 0.001848 -0.002753 0.003936 -0.004808 0.001642 -0.000839 0.000587 -0.003594 -0.003110 0.003139 0.004416 -0.001807 0.002013 0.003795 0.003739 -0.004227 -0.004702 -0.003400 0.003893 -0.004031 -0.000684 0.004638 0.000306 0.002097 -0.001959 0.002032 0.003275 -0.004962 0.002549 0.004959 0.002301 -0.002325 0.002872 -0.003870 -0.000541 0.004234 -0.001884 -0.002056 -0.003728 -0.004963 0.001915 -0.002953 -0.002347 -0.000052 -0.004472 0.000650 -0.003778 0.000862 0.001816 -0.003875 -0.000637 0.001805 -0.000623 -0.004526 0.000209 0.001563 0.000046 0.004334 0.000772 0.003944 -0.003541 -0.003580 0.003040 -0.000891 -0.003307 0.004306 -0.001527 0.002531 0.002469 0.003915 0.001432 0.002641 -0.001478 -0.002203 0.004294 -0.000679 0.004648 0.001588 0.001425 -0.003731 0.004629 -0.000413 0.000803 -0.000720 -0.002761 0.004134 0.000963 -0.004820 0.001213
sent_1 -0.001603 0.000396 0.004003 -0.001442 0.004061 0.001394 -0.004955 0.004277 0.001481 0.004951 -0.003125 -0.003519 0.004421 0.001879 -0.004535 0.002300 0.002450 0.004127 0.002161 -0.003826 -0.004700 -0.004703 -0.004486 -0.002369 0.003661 0.000165 0.000362 0.003457 -0.004050 -0.001939 0.000836 0.004756 0.000720 -0.004637 0.003179 -0.003113 0.003360 -0.001444 0.003387 0.002585 0.000413 -0.003775 -0.004523 -0.003354 -0.004561 -0.003994 -0.002587 0.002093 0.000730 -0.005095 -0.004177 0.004868 0.000673 -0.003062 -0.002085 0.002442 -0.003139 0.000822 0.004819 0.003032 -0.003026 -0.000192 0.001173 0.003266 -0.003742 -0.005027 -0.004269 -0.000325 0.000985 0.000428 -0.001919 0.005101 0.000708 -0.001117 0.000570 0.002408 0.001618 -0.002533 -0.004363 -0.001296 0.001500 -0.002781 0.002456 -0.004298 -0.002314 0.003271 -0.003163 0.001470 0.000171 0.004289 -0.002441 -0.004057 0.002049 0.002848 0.003998 0.004292 -0.004837 -0.002284 0.001181 0.004492
sent_2 0.004561 0.000395 0.004218 0.001258 -0.001101 0.000070 0.000809 0.000598 0.004194 0.004130 -0.001024 0.004735 -0.003319 -0.003804 -0.003596 0.000021 -0.004648 0.004482 0.003306 -0.004824 -0.003292 -0.001444 -0.003730 0.002863 -0.001388 0.004457 0.000738 0.003893 0.003288 0.004223 -0.000267 0.000466 0.003144 -0.002217 -0.000037 0.000879 -0.004688 0.000883 -0.000495 0.003015 -0.001657 0.003850 0.000833 -0.003038 0.002685 0.001033 -0.004592 -0.000802 0.001773 0.004012 -0.004896 0.004652 -0.001192 0.004905 0.001246 0.003278 0.000697 0.001311 -0.001946 0.000790 0.002163 0.003488 0.002649 0.001902 0.003532 -0.001782 0.001824 -0.000519 -0.001192 -0.000893 -0.000942 -0.001860 0.001198 -0.000657 0.004626 0.001657 -0.002962 -0.000953 -0.001494 0.002749 0.003815 0.003897 0.001618 -0.002166 -0.002598 0.003517 0.000198 0.003103 0.000833 0.002076 -0.000018 0.002744 0.000446 -0.000218 -0.001742 -0.004120 -0.001303 -0.004070 0.004595 -0.003036
sent_3 0.002858 0.003438 0.001585 0.000294 -0.003441 -0.000620 -0.001611 -0.002636 0.001305 -0.001926 0.004423 0.003929 -0.002846 -0.004122 -0.002900 0.000240 0.002276 -0.002794 -0.002563 0.003716 -0.001143 0.001901 -0.002725 -0.004020 0.000097 0.000181 -0.003204 0.001532 0.000633 0.001249 -0.003626 0.002196 -0.002813 0.000460 0.002445 -0.004650 -0.001957 0.003672 0.003698 0.000232 0.003468 0.004932 0.003594 0.003543 -0.004206 0.001540 0.001713 0.000758 0.002708 -0.004588 0.002956 0.001999 -0.002220 -0.002378 0.001326 -0.001664 0.003041 -0.000072 0.002890 0.005122 -0.002348 -0.004031 0.004226 -0.000182 0.004580 0.001637 0.005088 0.000511 0.000620 -0.003517 -0.000975 -0.004808 -0.003497 0.002624 -0.004964 -0.001273 0.003576 0.002056 0.001796 -0.003576 -0.000636 0.000347 0.004455 -0.002888 -0.002673 -0.003134 0.002405 -0.000337 -0.004240 -0.000387 -0.003034 0.002792 -0.002215 -0.004748 0.000337 0.003781 -0.001409 0.002103 -0.000312 0.000391
sent_4 0.004573 0.002988 -0.004763 0.001971 -0.000415 0.004554 -0.002900 -0.002272 -0.004224 -0.000772 -0.003830 0.001357 0.002937 0.001929 0.002693 -0.001538 0.003504 -0.000639 0.003255 0.001296 -0.003690 -0.003963 -0.004909 -0.004425 -0.000366 -0.003742 -0.004727 0.002739 -0.001094 0.002496 -0.000496 -0.000566 -0.000163 -0.000176 0.002992 -0.001027 0.004101 -0.004709 0.002850 -0.003791 0.001191 -0.004871 0.000494 -0.004930 0.004456 0.004081 0.002822 0.004103 -0.003667 -0.003487 -0.003089 0.001106 0.004096 0.005029 0.002248 0.002243 0.004116 -0.000942 -0.002425 -0.003337 -0.004015 0.003037 -0.003461 -0.002496 0.003094 -0.001848 0.004928 -0.002415 0.000418 -0.001857 0.004264 -0.001356 -0.000750 0.000219 0.004322 -0.004723 0.002188 0.003888 -0.004747 0.000048 -0.001766 0.003450 0.000489 0.001976 -0.000581 0.001143 -0.002185 -0.004868 0.000893 -0.002091 0.000104 0.004212 -0.000888 -0.002472 -0.001513 0.004508 0.004348 0.003488 0.004029 -0.002668
sent_5 -0.004161 -0.002927 -0.001824 -0.003350 0.000988 -0.000753 0.002967 -0.002975 0.002096 -0.002682 0.000816 -0.001519 -0.004566 -0.002890 0.001675 0.000041 0.000276 -0.003156 0.000745 0.005052 0.003065 0.001236 0.004778 0.003870 0.001013 -0.004517 -0.004008 -0.004198 -0.000483 -0.001280 0.004814 -0.003343 0.004818 0.002662 0.003160 0.001337 0.001700 -0.000259 -0.004696 -0.001588 -0.000015 0.002373 -0.000136 -0.000283 -0.003716 -0.004989 0.002408 -0.001881 0.004771 -0.002806 -0.001476 0.000115 0.002568 -0.000211 -0.003665 -0.001819 -0.000020 0.001863 0.002789 -0.003717 -0.005061 0.000035 0.003198 -0.005021 0.001629 0.001958 -0.000470 0.004131 0.001438 -0.004794 -0.000035 0.003552 0.003283 0.001494 0.001648 0.000746 -0.002251 0.000425 0.001699 -0.001796 0.003571 -0.003299 0.002332 -0.002068 0.002637 -0.000935 0.002960 -0.001385 -0.002713 0.002416 -0.002027 0.002282 0.002229 -0.002626 -0.003102 -0.002796 -0.003732 -0.001246 -0.004956 -0.003823
sent_6 0.001534 0.003110 -0.004405 -0.002755 -0.002854 0.003837 0.002315 0.000392 -0.001770 0.003475 -0.000597 0.004066 0.001964 -0.000078 -0.003766 0.004976 -0.003476 -0.002839 -0.000800 -0.001004 -0.003601 0.002316 -0.003198 0.001651 0.002453 -0.002857 0.001250 0.002548 0.001576 0.000741 -0.002218 0.002173 0.004415 -0.000629 0.002695 -0.004356 0.003276 -0.003043 -0.001023 -0.002010 -0.004294 0.004226 -0.001238 0.000049 -0.000061 -0.003638 -0.002949 -0.004223 0.000009 -0.002200 -0.001574 -0.003969 0.002903 -0.004026 0.004628 -0.003337 0.000704 -0.004513 0.002769 -0.002945 0.000531 0.002420 -0.003547 0.000416 -0.002834 0.002621 0.002147 -0.003284 0.003848 -0.004847 0.003787 0.000677 -0.000919 0.002676 0.002170 0.005106 -0.002199 -0.004665 0.004267 0.003692 0.002290 0.000205 0.001985 0.002788 -0.001245 0.002577 0.002566 0.001149 -0.001038 0.002092 -0.004790 0.002629 0.004256 -0.002744 -0.003850 -0.002852 -0.002050 0.003595 0.000452 -0.002196
