25 100
the -0.002017 0.004910 0.001793 0.005591 -0.004622 0.003138 0.001143 0.000686 -0.003023 -0.001007 -0.003528 -0.002780 0.004056 0.000085 -0.005100 0.002740 0.000099 0.002029 0.001010 -0.001923 0.005401 -0.006723 0.005213 0.004381 -0.001111 -0.003334 0.000441 -0.004172 0.002411 -0.002645 -0.001743 0.005334 0.004203 -0.000104 0.004330 -0.002021 0.006032 -0.000353 -0.002974 -0.004440 0.005073 -0.001266 0.001476 0.001323 0.002881 -0.004634 0.004951 0.005248 0.001011 0.004571 -0.002660 0.001894 -0.001108 0.001051 -0.002372 0.003667 -0.004917 -0.005676 -0.004346 -0.003994 -0.000777 0.005662 -0.004794 0.002550 0.000138 -0.001716 -0.003448 -0.002613 -0.005703 0.002137 0.000760 -0.000675 0.002210 -0.005159 0.005140 0.003755 0.001243 -0.001697 -0.001033 0.000639 0.004852 0.004634 0.000111 0.000429 0.004598 0.005921 0.001704 0.002927 -0.002048 0.005536 0.003896 0.000373 0.004475 0.003804 0.004500 -0.004464 0.001011 0.004350 0.003786 -0.000694
and -0.001407 0.003937 0.002228 0.002745 0.000154 -0.002422 -0.003847 -0.001705 -0.004880 0.002210 0.001133 -0.000479 0.003192 0.000845 -0.004395 -0.003647 -0.003130 -0.001974 -0.003951 0.000537 0.000513 0.000075 -0.000254 0.003380 -0.000369 -0.005096 0.003034 0.000903 0.002534 0.004270 -0.003886 -0.002291 -0.004004 -0.000985 0.003768 -0.004159 0.000244 -0.003481 0.001898 0.003555 -0.004362 -0.000837 -0.003263 0.003803 0.004481 0.001162 0.004865 -0.000920 0.004007 -0.000654 -0.002860 0.004432 0.001760 -0.004285 0.003430 0.001749 0.000844 0.001479 -0.002165 0.000496 0.003564 -0.003437 -0.004212 0.003852 0.001061 0.000013 -0.002640 -0.001772 0.003281 -0.001017 -0.004400 0.004048 -0.002615 0.002767 0.003998 0.000191 0.000795 0.000375 0.001367 0.004348 -0.001900 0.004201 0.000720 -0.003400 -0.002090 0.001962 -0.002293 -0.003485 -0.003353 0.004042 0.001296 0.004421 -0.000846 0.000723 0.001647 0.000408 -0.003490 0.002659 0.004831 0.000402
of 0.003164 -0.000026 0.001994 -0.002237 0.005957 -0.001936 0.005089 -0.003180 -0.001231 0.003914 0.001551 0.002849 0.000506 0.003349 0.004182 -0.001461 0.000226 -0.005587 -0.000784 -0.000916 0.004748 -0.005904 0.002580 0.000298 0.001406 -0.006114 -0.004760 -0.003073 -0.006115 0.002607 0.004569 0.000996 0.000443 0.000465 -0.000846 -0.001911 0.001548 0.003276 -0.003965 -0.000989 0.002790 -0.002991 -0.006123 -0.004119 -0.002803 0.000212 0.002179 0.004799 0.005010 -0.002786 0.001826 -0.001556 -0.001302 -0.002448 -0.000609 -0.003266 -0.001874 -0.005062 0.005238 -0.000533 0.005181 0.003555 -0.001338 0.003938 0.001655 -0.002652 0.000119 0.002504 -0.002307 -0.006104 -0.003517 0.003358 0.004614 0.000889 -0.003161 0.002492 0.000077 0.002650 0.004189 0.006328 0.001554 0.005044 0.003432 0.002639 0.004040 0.006393 0.004481 -0.001363 -0.004982 0.004677 0.000410 0.000955 0.003958 -0.005232 0.005141 -0.005694 0.002867 0.001761 0.002429 -0.001143
in 0.002910 0.002672 0.001375 -0.000660 -0.002767 -0.001136 -0.001591 -0.002487 0.001957 -0.001557 0.004869 0.004246 -0.003421 -0.003975 -0.002325 0.000349 0.002272 -0.002797 -0.002813 0.003698 -0.001706 0.002521 -0.003397 -0.004505 0.000246 0.000967 -0.003253 0.002046 0.000312 0.001114 -0.003248 0.001704 -0.002998 0.000584 0.001599 -0.004150 -0.002752 0.003968 0.003911 0.000628 0.003057 0.005294 0.003497 0.002885 -0.004582 0.001891 0.000936 0.000264 0.002575 -0.004810 0.003234 0.001316 -0.002286 -0.002386 0.001375 -0.002214 0.003348 0.000378 0.003512 0.005655 -0.001909 -0.004602 0.004805 -0.000493 0.004558 0.001924 0.005077 0.000795 0.001161 -0.003640 -0.000994 -0.004667 -0.003464 0.003077 -0.005586 -0.001294 0.003618 0.002379 0.001969 -0.003627 -0.001133 -0.000280 0.004273 -0.002913 -0.003165 -0.003756 0.002199 -0.000307 -0.003895 -0.001059 -0.003395 0.002373 -0.002332 -0.005074 -0.000083 0.003923 -0.001387 0.001191 -0.000901 0.000397
HIT 0.004673 0.002715 -0.004981 0.001225 0.000176 0.004037 -0.002714 -0.002483 -0.003882 -0.000482 -0.003591 0.001538 0.002458 0.002299 0.003008 -0.001469 0.003680 -0.000763 0.003019 0.001316 -0.003787 -0.003756 -0.005306 -0.004806 -0.000114 -0.003586 -0.004923 0.002898 -0.001419 0.002586 -0.000141 -0.000854 -0.000197 -0.000047 0.002667 -0.000980 0.004035 -0.004373 0.002975 -0.003592 0.001457 -0.004766 0.000417 -0.005685 0.003943 0.004220 0.002424 0.004241 -0.003601 -0.003823 -0.003077 0.000797 0.004123 0.005076 0.002046 0.001585 0.004138 -0.000872 -0.001825 -0.002904 -0.003801 0.002831 -0.003002 -0.002643 0.003114 -0.001666 0.005194 -0.002225 0.000740 -0.002317 0.004294 -0.001492 -0.000702 0.000597 0.003668 -0.004801 0.002310 0.004320 -0.004516 0.000158 -0.001949 0.003451 0.000701 0.002251 -0.000845 0.000918 -0.002017 -0.004796 0.000756 -0.002552 -0.000057 0.004023 -0.000731 -0.002937 -0.001625 0.004488 0.004366 0.003079 0.003447 -0.002614
to -0.000708 0.002051 -0.004985 -0.002410 -0.002875 -0.004226 -0.002669 -0.001701 -0.001092 0.000774 -0.000649 0.002051 -0.003078 0.004115 -0.004347 0.001618 -0.000839 0.000364 -0.003558 -0.003213 0.003079 0.004444 -0.001845 0.001892 0.003901 0.003735 -0.004376 -0.004568 -0.003813 0.003944 -0.003544 -0.000952 0.004662 0.000441 0.001739 -0.001878 0.001964 0.003482 -0.005048 0.002657 0.004911 0.002236 -0.002579 0.002314 -0.004170 -0.000363 0.003891 -0.001777 -0.001891 -0.003894 -0.004838 0.001552 -0.002903 -0.002268 -0.000103 -0.004935 0.000571 -0.003772 0.001419 0.001860 -0.003566 -0.000619 0.001965 -0.000678 -0.004566 0.000207 0.001667 0.000252 0.004496 0.000271 0.003860 -0.003301 -0.003328 0.003226 -0.001275 -0.003157 0.004116 -0.001232 0.002720 0.002706 0.003819 0.001462 0.002627 -0.001171 -0.002195 0.004268 -0.000492 0.004672 0.001472 0.001321 -0.003746 0.004459 -0.000252 0.000436 -0.000864 -0.002894 0.004166 0.000641 -0.005075 0.001195
first 0.004923 -0.002355 0.002111 0.005234 -0.001023 0.005888 -0.002066 0.001917 0.000017 -0.002367 -0.005804 0.000063 0.005691 -0.001777 0.001618 -0.004091 -0.001323 -0.004711 0.003081 0.001190 0.003033 -0.004746 0.002821 -0.003030 -0.000597 -0.002258 -0.003497 -0.005823 -0.000039 0.002746 0.001694 0.003176 -0.003084 -0.004246 0.001925 0.002592 -0.001731 0.000149 -0.002068 0.000243 -0.002437 -0.003267 -0.003856 0.004289 0.003499 -0.000590 0.002645 -0.002307 0.001113 -0.002730 0.002975 0.002902 0.001073 -0.004057 0.000166 0.005467 0.004422 -0.000217 -0.002981 0.000350 0.000241 0.001061 -0.001730 0.002309 0.003920 0.001836 0.000510 0.004760 -0.005681 0.004723 -0.005791 -0.003132 -0.000961 -0.005183 0.002191 -0.004840 -0.002278 -0.005215 0.002256 0.002492 -0.000926 -0.001563 0.003267 -0.001904 0.003714 0.002200 0.000387 -0.004714 0.000286 0.000517 -0.002797 0.000091 -0.001076 0.000181 0.006640 -0.002118 0.004223 0.002096 0.005401 -0.001257
research -0.003619 -0.002303 0.001085 -0.002238 -0.000303 -0.000714 0.003141 -0.000668 -0.001337 0.001851 -0.002624 -0.000175 -0.002305 0.001266 0.003905 -0.000471 0.003102 -0.000399 0.001532 -0.003627 -0.000802 0.004437 0.000726 0.002273 0.000219 0.000293 0.003279 -0.004026 0.000587 0.004509 0.000399 -0.003217 0.003516 -0.002443 0.001878 0.000445 0.004534 0.001506 0.003741 -0.004979 0.005328 -0.004191 -0.001598 0.004109 -0.005205 0.003331 0.003310 -0.000463 -0.002491 0.002841 -0.000243 -0.003913 0.004348 0.004335 -0.000111 0.003262 -0.000821 0.001973 -0.000688 0.000352 -0.003325 0.004383 -0.001723 -0.004183 -0.003465 -0.004667 0.002447 0.000731 0.003130 -0.000053 0.003037 0.001689 0.002719 -0.000767 0.001120 -0.003410 -0.001641 -0.003099 -0.000897 -0.002889 -0.001117 0.004716 -0.001775 0.004951 0.000962 -0.001539 0.003498 0.001303 -0.002463 0.002459 -0.000861 -0.001483 -0.001838 0.001959 -0.002640 0.003397 -0.002137 0.000210 -0.000637 0.003631
a -0.004321 -0.002985 -0.002143 -0.003394 0.000961 -0.000996 0.003070 -0.003063 0.002469 -0.002775 0.000809 -0.001740 -0.004603 -0.002832 0.001863 0.000209 0.000088 -0.002901 0.000709 0.005070 0.002851 0.001503 0.004692 0.004002 0.000845 -0.004215 -0.003569 -0.004079 -0.000139 -0.001608 0.004575 -0.003550 0.004682 0.002789 0.002735 0.001629 0.001379 -0.000354 -0.004556 -0.001611 -0.000378 0.002630 0.000102 -0.000400 -0.003654 -0.004934 0.002167 -0.002157 0.004402 -0.002445 -0.001278 -0.000041 0.002599 -0.000238 -0.003822 -0.001791 0.000069 0.002152 0.002465 -0.003527 -0.004840 -0.000067 0.003250 -0.005233 0.001507 0.002044 -0.000452 0.004038 0.001543 -0.004542 0.000248 0.003490 0.003269 0.001557 0.001557 0.000874 -0.002291 0.000570 0.001541 -0.001869 0.003512 -0.003584 0.002040 -0.002043 0.002659 -0.001352 0.002951 -0.001364 -0.002394 0.002146 -0.001877 0.001992 0.002314 -0.002676 -0.003259 -0.002756 -0.003771 -0.001579 -0.004993 -0.003871
have -0.003256 0.002162 -0.005357 -0.002312 0.004477 0.000432 0.003636 0.001016 0.003713 0.004024 -0.001736 -0.003787 0.001841 -0.000421 -0.003199 0.001138 -0.004597 -0.002867 0.002894 -0.004796 -0.002322 -0.004280 0.004575 0.000686 -0.001972 0.004562 0.000290 -0.000171 0.000856 -0.002648 -0.001756 -0.001709 -0.002529 0.000917 0.001366 -0.003836 0.004425 0.002558 0.003277 0.002400 -0.004304 -0.000014 -0.000511 0.000986 -0.000703 0.002150 0.001372 0.001763 0.000809 -0.003374 0.002599 0.002346 0.004230 -0.002446 -0.003402 -0.001384 -0.001717 0.003440 0.001268 0.002939 -0.000567 -0.004138 -0.003678 -0.001616 -0.003157 0.003297 0.001159 0.001980 0.000381 -0.004083 -0.002154 -0.000352 -0.002856 -0.004444 0.001979 0.002303 -0.001704 0.003721 -0.000871 0.003510 0.001378 0.000513 -0.003261 0.000441 0.003643 -0.002400 0.003591 0.004062 -0.001363 0.001442 0.003834 -0.004522 0.003916 -0.003237 0.002949 0.001856 -0.001646 -0.004110 0.000951 0.003374
for -0.003008 -0.000550 0.003475 0.000778 -0.000258 0.000128 0.000659 -0.000622 -0.003072 -0.003718 -0.003507 -0.004307 0.000594 0.003535 -0.001451 -0.004266 -0.000683 0.000903 -0.000753 0.003030 0.004431 0.003611 0.001953 -0.000464 0.001978 -0.004859 0.004617 -0.003299 0.003856 0.003213 0.003106 -0.002226 -0.002711 -0.000785 0.003581 -0.000661 0.004483 -0.001385 0.001225 0.004868 0.001677 -0.004561 -0.000448 -0.001807 0.000141 -0.002174 -0.003741 0.001814 0.001888 0.003422 -0.003692 0.003025 0.003261 0.001505 -0.002885 -0.002516 -0.000890 0.000333 -0.000013 -0.000201 0.003300 0.003640 0.003222 0.003857 0.000684 0.004567 0.001205 0.001062 -0.001812 0.001594 -0.004517 -0.003779 -0.003703 0.001563 -0.003353 -0.001658 -0.004418 -0.002647 0.004686 0.000144 -0.003407 0.000383 0.004577 0.003719 -0.001166 -0.001998 0.002685 -0.002428 -0.002505 -0.004194 0.003469 -0.000474 0.000626 0.002284 0.003024 -0.000539 -0.003133 0.003288 -0.004775 0.004552
has 0.004984 -0.002593 -0.001221 0.004674 0.003072 0.004424 -0.004973 -0.000849 -0.002987 -0.002038 0.002266 0.002436 -0.000169 -0.001444 0.000697 0.000061 0.000569 0.000926 -0.000903 0.002597 -0.002273 0.001274 0.004836 -0.005194 0.002328 -0.003938 0.000069 0.001056 -0.002881 0.004356 0.001534 -0.002372 0.002705 -0.004123 0.000803 -0.004253 0.001045 -0.002333 0.001346 0.002300 0.000422 0.001191 0.002867 0.003352 0.001225 -0.000504 -0.000840 0.003915 0.002279 -0.003279 0.000742 0.004202 -0.003553 0.003499 0.003390 0.000104 -0.004717 -0.003727 0.004482 -0.004761 -0.001375 0.001322 -0.003080 0.005123 -0.003436 0.000375 0.001073 -0.002535 -0.000728 -0.000026 0.002219 0.001296 -0.000388 0.001420 -0.000424 0.000119 0.001517 -0.003545 0.003056 0.001040 0.004754 -0.002641 -0.000229 0.003974 0.001107 0.002579 -0.000861 0.001908 0.004317 -0.002895 0.003016 0.004726 -0.005052 -0.002618 -0.003443 0.002574 -0.004008 0.005276 -0.001014 0.004251
with 0.004124 -0.001022 -0.004347 0.003302 0.000351 -0.001950 0.004810 0.004412 -0.002208 -0.002779 0.000927 0.003414 -0.001800 0.000951 -0.003165 -0.002910 0.002612 -0.003406 -0.002218 0.001755 -0.004964 -0.004566 -0.002218 -0.001666 -0.001357 0.003278 -0.004612 -0.001278 0.001238 -0.003724 0.003664 0.001334 -0.003803 -0.002799 0.002180 -0.000854 -0.000164 0.004009 -0.003542 0.004576 -0.004517 -0.004015 -0.002780 0.002693 -0.000578 0.001678 -0.003433 -0.003227 0.000058 0.002469 -0.000367 0.003465 0.001622 -0.002310 -0.002760 -0.001449 0.002490 0.004366 0.003770 -0.002261 -0.000760 0.001181 0.000539 -0.001180 -0.004052 0.002088 -0.004011 0.003680 0.003712 0.001994 0.000029 0.002008 -0.000978 0.003015 0.002670 -0.003304 -0.001846 -0.001344 -0.001453 0.000620 -0.004622 0.001563 -0.003107 -0.000736 -0.000542 -0.001628 -0.001116 -0.003063 -0.004209 0.000472 0.001032 -0.003701 -0.002551 -0.002192 0.003156 -0.003359 0.000564 0.000405 -0.001702 -0.001437
universities -0.001593 0.000437 0.003985 -0.001382 0.004223 0.001392 -0.004757 0.004360 0.001456 0.005212 -0.003332 -0.003454 0.004410 0.002126 -0.004553 0.002489 0.002623 0.004021 0.002153 -0.003899 -0.004603 -0.005124 -0.004567 -0.002595 0.003769 0.000025 0.000156 0.003268 -0.004144 -0.001960 0.001082 0.004843 0.000765 -0.004882 0.003340 -0.003003 0.003525 -0.001035 0.003370 0.002548 0.000843 -0.003940 -0.004701 -0.003908 -0.004474 -0.003903 -0.002517 0.002562 0.000895 -0.005132 -0.004618 0.004836 0.000643 -0.002905 -0.002422 0.002248 -0.003278 0.000326 0.005055 0.003188 -0.002569 0.000248 0.000972 0.003641 -0.003476 -0.004861 -0.004337 -0.000145 0.000989 0.000376 -0.001988 0.004973 0.000794 -0.001244 0.000619 0.002466 0.001687 -0.002379 -0.004185 -0.000986 0.001404 -0.002471 0.002764 -0.004203 -0.002332 0.003571 -0.002989 0.001461 -0.000046 0.004585 -0.002260 -0.004064 0.002472 0.002683 0.004259 0.004156 -0.004746 -0.002342 0.001223 0.004562
as -0.003535 0.001241 0.001517 -0.000860 -0.004309 -0.000111 -0.000399 0.003071 -0.002401 -0.000958 -0.002572 0.001899 0.004776 -0.003144 0.003332 -0.002645 -0.004397 -0.003542 0.004411 0.003820 -0.002179 0.004643 0.003349 -0.000747 -0.000247 0.001356 -0.003450 -0.004671 -0.002487 -0.004791 0.001788 0.000389 -0.001737 0.002857 -0.003670 -0.002528 -0.002038 -0.003057 -0.004045 0.003663 -0.004076 0.001781 -0.003830 -0.005107 0.000535 0.004158 0.003463 -0.001555 -0.004824 0.002943 0.002985 0.003559 0.001742 0.003198 0.004025 -0.000577 0.000617 0.000046 0.002024 0.001836 0.000165 0.003281 0.000088 0.003154 -0.002194 -0.003205 0.004812 0.002401 -0.002282 0.000783 0.004695 -0.004168 -0.004169 0.001291 -0.002858 0.002659 0.000680 0.001761 -0.003934 -0.004159 0.001215 -0.000950 -0.004185 -0.001201 0.001605 -0.003134 0.003848 0.004473 0.004711 0.002178 -0.000975 0.002470 -0.002123 -0.001863 0.000866 0.001067 0.003864 -0.002522 0.002569 0.004404
are -0.000111 -0.001825 0.000373 0.003964 -0.000866 -0.001674 0.003059 0.001378 -0.000204 0.001846 -0.000689 -0.003996 -0.001125 -0.001579 -0.002254 0.004792 0.001881 0.001512 0.002334 0.000581 0.001485 0.005119 0.003301 -0.003283 -0.002469 -0.003590 0.005407 -0.002147 0.001965 -0.004730 -0.002950 -0.000595 -0.003904 -0.000762 -0.000517 -0.000921 0.000026 0.000373 -0.000720 0.001732 0.001467 0.002464 0.001178 -0.001982 0.000917 0.004389 0.000273 0.004372 -0.001183 0.002787 -0.004414 0.001965 0.000266 -0.004660 -0.002614 0.000059 0.002683 -0.003903 0.000393 0.003361 0.001613 0.003950 -0.003879 -0.002929 0.003953 0.002957 0.001032 0.003261 0.004463 0.004952 0.005707 -0.003565 -0.004135 -0.003952 -0.005217 0.004918 -0.004054 0.003817 0.001603 -0.000554 -0.001674 -0.002207 -0.002999 0.004243 0.002036 -0.005715 -0.000492 -0.002056 -0.004125 0.003108 0.002804 -0.002237 0.003069 -0.001872 -0.002720 0.004577 0.004446 -0.000641 0.003828 0.003756
Academy -0.002565 0.004282 -0.004714 0.004880 0.000595 -0.001103 0.005130 -0.004594 0.000135 -0.004793 0.000507 -0.003382 0.001682 0.005009 0.003781 -0.000357 0.001995 0.002970 -0.000043 0.000204 -0.003443 -0.001712 -0.003541 0.002443 -0.000407 -0.000676 0.004140 0.000188 -0.000652 -0.002528 -0.004441 -0.000746 -0.004734 -0.002153 0.000056 0.004909 -0.004027 0.001507 -0.000141 0.002789 -0.003751 -0.004162 -0.000901 0.002769 -0.002719 0.002636 -0.002041 -0.002768 -0.004955 -0.000736 -0.001344 0.001598 -0.004396 -0.003536 -0.004958 -0.003729 0.001509 -0.001188 -0.002232 0.000403 0.005376 0.003651 0.001691 0.004340 -0.004503 -0.004409 -0.000509 -0.001707 0.004262 -0.000010 0.000427 0.004026 -0.000391 0.003548 -0.002161 -0.002057 -0.001741 0.000595 -0.002872 0.002034 -0.003542 -0.004043 0.003695 -0.002553 -0.000921 0.000932 0.000268 -0.004302 0.003911 0.004660 0.003416 -0.002276 0.000605 -0.001624 0.000722 0.004511 -0.001717 0.001733 -0.001397 0.002662
scientific 0.001148 0.004196 0.001427 -0.002389 -0.001892 0.000737 0.004606 -0.003067 -0.000747 -0.001220 0.002685 0.003439 -0.000475 -0.002845 -0.004900 -0.003303 -0.002158 0.000586 0.003827 -0.004038 0.004718 0.001197 0.002520 0.004637 -0.000613 -0.000126 0.001029 0.000025 -0.002684 -0.003395 -0.001990 0.003058 0.001525 0.002938 0.000931 -0.003598 0.002046 -0.001927 -0.004991 0.004379 -0.000462 -0.001243 0.001907 0.004600 -0.004318 -0.003083 -0.001337 -0.001883 0.000467 0.002595 0.003157 0.001462 -0.002620 -0.003179 0.002806 -0.002826 0.000236 0.001911 -0.002080 -0.003661 -0.004853 -0.003227 0.003275 -0.003483 -0.002840 -0.004935 0.001844 -0.002741 -0.000992 -0.004291 -0.001627 -0.000635 -0.000499 -0.000815 -0.003803 0.002681 -0.003551 -0.000768 -0.002125 -0.001596 0.001880 0.000888 -0.002709 -0.000219 -0.001536 0.002835 -0.002617 0.003600 -0.000321 0.000564 -0.002443 -0.002630 -0.000328 0.004680 -0.003234 -0.002228 0.003262 0.002296 -0.001929 -0.001582
In -0.004727 -0.000126 0.001813 0.003470 -0.003088 0.003772 -0.001346 0.004016 -0.005095 -0.003954 0.004782 0.001333 -0.000766 -0.003241 0.001285 -0.004686 -0.001710 -0.001973 0.001090 0.001404 0.003562 0.003888 0.001642 0.000569 -0.000875 0.004412 -0.003919 0.003803 -0.002276 0.000757 0.001987 -0.002395 -0.003236 0.000038 0.003206 0.001613 -0.003486 0.004139 -0.000398 0.004515 0.000808 -0.004354 -0.003185 0.003524 0.002097 0.004045 -0.001461 0.000641 0.001794 0.000590 -0.002878 -0.000597 -0.002617 0.003474 0.004937 -0.004417 0.002042 -0.002130 0.001626 -0.002595 0.001493 -0.001054 -0.002109 0.004399 0.004484 0.001121 -0.002833 0.004397 0.002332 0.002230 -0.003134 0.003270 -0.002663 0.001238 0.002127 0.002303 -0.001036 0.002536 0.004154 0.001030 -0.004066 -0.003364 -0.003602 -0.003242 -0.003676 0.003150 -0.004500 -0.002541 0.003455 0.004963 0.001073 0.005004 -0.004543 0.004388 -0.001628 0.002917 0.003262 0.003866 -0.000328 0.004349
national 0.003243 0.001257 0.004634 0.000957 -0.003023 -0.000591 -0.001605 0.005064 -0.001253 0.004974 0.000109 -0.003312 -0.004197 -0.001375 -0.003750 0.001300 -0.000891 0.004880 0.004437 -0.003492 -0.001102 -0.000494 0.000733 0.002801 -0.000164 -0.000890 -0.002354 0.004116 -0.004776 0.003168 -0.003024 0.001888 -0.001500 0.004728 -0.003815 -0.003116 0.003985 0.000775 -0.001895 -0.005085 -0.002854 -0.003674 -0.002986 0.003987 0.003918 0.002001 -0.000303 0.003308 -0.000028 -0.001294 -0.002195 0.004275 -0.001044 0.000018 -0.002478 0.003971 -0.001254 -0.002004 0.002166 -0.003212 -0.003806 0.003437 0.002342 0.000980 -0.002619 0.001290 0.001368 -0.001745 -0.004468 0.003867 -0.000469 0.002678 -0.002449 0.000826 -0.000619 -0.001204 -0.003865 -0.002672 -0.004305 -0.002014 0.002383 0.001190 0.001666 -0.004921 0.001842 0.000007 -0.002709 -0.003307 -0.003159 0.003447 0.004942 0.004109 -0.001543 0.002885 0.000470 0.003202 -0.000252 0.000906 0.002939 -0.004056
its 0.001743 0.002823 -0.004159 -0.002843 -0.002887 0.004190 0.002044 0.000589 -0.001877 0.003345 -0.000633 0.004255 0.001938 -0.000215 -0.003604 0.004771 -0.003303 -0.002887 -0.000641 -0.000965 -0.003539 0.002470 -0.003190 0.001311 0.002604 -0.002791 0.001012 0.002568 0.001300 0.000972 -0.001938 0.002259 0.004516 -0.000739 0.002705 -0.004341 0.003351 -0.003049 -0.000948 -0.002063 -0.004068 0.003988 -0.001246 0.000218 -0.000167 -0.003682 -0.003081 -0.004225 0.000009 -0.002358 -0.001385 -0.004083 0.002881 -0.003783 0.004867 -0.003245 0.000733 -0.004501 0.002935 -0.003083 0.000194 0.002375 -0.003379 0.000399 -0.002822 0.002598 0.002277 -0.003214 0.003616 -0.004721 0.003653 0.000562 -0.000924 0.002609 0.002029 0.004827 -0.002210 -0.004988 0.004338 0.003416 0.002221 0.000048 0.002018 0.002872 -0.001345 0.002606 0.002418 0.001138 -0.000885 0.001781 -0.005039 0.002669 0.003891 -0.002508 -0.003920 -0.002690 -0.001955 0.003763 0.000272 -0.002102
was -0.002069 0.000205 0.003991 0.000900 0.001607 -0.000348 0.004821 0.002489 -0.001704 0.001597 0.000203 0.003885 -0.002004 -0.003850 -0.003187 -0.001186 0.003547 -0.002466 0.001374 0.001161 -0.000667 -0.004966 0.002673 -0.002020 -0.000990 -0.001564 0.001380 -0.004444 0.000337 -0.004761 0.004948 0.001233 -0.001090 -0.003635 0.002177 0.003966 -0.001569 0.002708 -0.002417 0.004490 0.002121 0.000992 0.004062 -0.002279 0.004425 0.001705 0.002976 0.000952 0.003518 0.001929 -0.003646 0.001266 -0.002241 0.004073 -0.003077 -0.002027 -0.004600 -0.000895 0.000596 0.000502 0.004155 -0.001168 -0.000760 0.003789 0.000841 0.001506 -0.002312 -0.000072 0.000914 -0.003664 -0.004866 -0.003842 -0.000153 -0.004966 0.001446 -0.004024 -0.002549 -0.000888 -0.003752 -0.002045 -0.004683 0.005104 0.001318 -0.001210 -0.004479 -0.000684 -0.000374 0.004226 -0.002408 0.001477 0.001750 -0.003023 0.000232 0.002872 -0.003677 0.000793 -0.004536 -0.004669 -0.004131 -0.000269
key 0.000269 -0.001183 0.002115 -0.000316 0.001100 0.005095 0.002824 -0.001624 -0.004396 -0.003108 0.000190 -0.000749 0.003160 0.004398 -0.003232 0.003518 0.004601 0.004459 -0.004559 -0.004457 -0.004956 -0.002116 -0.004365 -0.002117 -0.001444 0.004351 -0.000382 -0.002299 -0.000085 0.001532 -0.003806 0.002622 0.003511 0.003403 0.004063 -0.001295 -0.000386 -0.004029 -0.002831 0.004738 -0.002179 0.003877 0.003783 0.004211 -0.003267 0.003929 0.001466 -0.002731 -0.001482 -0.003475 -0.000653 -0.004105 -0.003311 -0.002955 0.001983 0.000732 0.003701 -0.002756 0.001375 -0.004870 0.000251 0.003849 0.004639 -0.004729 -0.002480 -0.002790 -0.004532 -0.004934 -0.000165 -0.004674 -0.002299 0.001462 -0.002080 -0.002361 0.001059 -0.001234 0.001983 -0.000043 0.001349 -0.001312 -0.002174 -0.003476 0.004431 0.003140 0.004478 -0.002964 0.004396 0.004309 -0.002256 -0.002106 0.000646 -0.003023 -0.000561 -0.003211 0.004585 -0.000080 0.004731 0.001635 -0.000011 0.004716
by -0.000757 0.000846 0.002029 0.003461 0.001781 -0.002614 0.004219 0.002925 -0.001886 -0.001980 0.003786 -0.003721 0.001300 -0.002229 0.003407 -0.001315 0.002313 -0.003140 -0.000153 0.003095 -0.001089 -0.003186 0.001524 0.002406 -0.002189 -0.000361 0.003882 0.003675 0.001992 0.000810 0.003226 0.004005 -0.004971 -0.000939 0.000429 0.002349 -0.004124 -0.001006 -0.002247 -0.000829 -0.000126 0.001615 -0.000087 0.001191 0.000789 -0.000653 -0.004990 -0.003140 -0.001943 -0.003517 0.001149 0.000982 0.000084 -0.001802 0.001573 -0.003102 -0.004822 0.002396 -0.000469 0.001955 -0.003254 -0.004374 -0.001217 0.001778 -0.004044 -0.002926 -0.000398 0.001313 0.002507 -0.003743 0.001426 -0.001161 0.001642 -0.002919 0.000175 -0.003273 -0.004801 -0.000138 -0.003125 0.001281 0.000340 0.002559 -0.001255 0.004959 0.000236 -0.000401 0.002472 0.000701 -0.001276 -0.000264 -0.003164 -0.001109 -0.004762 -0.000431 -0.002301 0.000291 -0.004523 0.000498 -0.002119 0.000772
Chinese 0.004769 0.000973 0.004343 0.001889 -0.000950 0.000147 0.001268 0.000456 0.003816 0.004424 -0.001390 0.004743 -0.002680 -0.003515 -0.003936 -0.000134 -0.004872 0.004144 0.003382 -0.005100 -0.002884 -0.002715 -0.003468 0.003208 -0.001577 0.003832 0.000491 0.003385 0.003258 0.004198 -0.000307 0.000855 0.002934 -0.002412 0.000390 0.000797 -0.004543 0.000974 -0.001080 0.003229 -0.001809 0.003483 0.000290 -0.003261 0.003279 0.001107 -0.003977 -0.000379 0.002178 0.004053 -0.005332 0.005159 -0.001295 0.004467 0.000990 0.003400 0.000656 0.000726 -0.002212 0.000621 0.002941 0.004047 0.002022 0.002595 0.003854 -0.001963 0.001449 -0.000449 -0.001490 -0.001113 -0.001479 -0.001693 0.001323 -0.001047 0.005194 0.001853 -0.003065 -0.000742 -0.001469 0.003696 0.003883 0.004660 0.001982 -0.002362 -0.002169 0.004411 0.000399 0.002882 0.000356 0.003054 0.000401 0.002872 0.001103 -0.000419 -0.000871 -0.004802 -0.000902 -0.003846 0.005479 -0.003271
